{
  "type": "LSTMTimeStep",
  "options": {
    "inputSize": 1,
    "hiddenLayers": [
      20
    ],
    "outputSize": 1,
    "decayRate": 0.999,
    "smoothEps": 1e-8,
    "regc": 0.000001,
    "clipval": 5
  },
  "hiddenLayers": [
    {
      "inputMatrix": {
        "rows": 20,
        "columns": 1,
        "weights": {
          "0": 0.00008659783634357154,
          "1": -0.7405558824539185,
          "2": 9.427750587463379,
          "3": 4.8609232902526855,
          "4": 0.9552790522575378,
          "5": -0.0005961052374914289,
          "6": -0.00022458967578131706,
          "7": -0.0008890300523489714,
          "8": 16.098703384399414,
          "9": 3.9944369792938232,
          "10": -0.00007738167187198997,
          "11": 3.616065740585327,
          "12": 0.0023568891920149326,
          "13": -0.00043972767889499664,
          "14": 0.0001464256492909044,
          "15": -0.0011419948423281312,
          "16": 0.10751078277826309,
          "17": 0.22580909729003906,
          "18": -0.0005746171227656305,
          "19": -0.0024428560864180326
        }
      },
      "inputHidden": {
        "rows": 20,
        "columns": 20,
        "weights": {
          "0": 1.8046973943710327,
          "1": -19.73525047302246,
          "2": 18.76340103149414,
          "3": 0.8900255560874939,
          "4": -4.744953155517578,
          "5": 7.546046257019043,
          "6": 9.55271053314209,
          "7": 1.1406744718551636,
          "8": -19.77725601196289,
          "9": 12.674785614013672,
          "10": -3.8626699447631836,
          "11": 0.6235418915748596,
          "12": 0.47175970673561096,
          "13": 27.623310089111328,
          "14": -5.24791955947876,
          "15": -0.4170031249523163,
          "16": -3.3711705207824707,
          "17": -3.2006452083587646,
          "18": -5.12506628036499,
          "19": 7.873833656311035,
          "20": -2.7037296295166016,
          "21": 1.0026826858520508,
          "22": -0.5766385197639465,
          "23": -2.9833664894104004,
          "24": 0.7786798477172852,
          "25": 18.229616165161133,
          "26": 10.654736518859863,
          "27": 6.4274001121521,
          "28": -13.959808349609375,
          "29": -5.3102240562438965,
          "30": -6.552903175354004,
          "31": -0.10213349014520645,
          "32": 1.3871535062789917,
          "33": 36.36336135864258,
          "34": -1.2570432424545288,
          "35": -0.6162602305412292,
          "36": 1.5266320705413818,
          "37": 0.7543718218803406,
          "38": 21.63059425354004,
          "39": 11.362761497497559,
          "40": -7.815787315368652,
          "41": 5.696207046508789,
          "42": 0.27343395352363586,
          "43": 1.514797329902649,
          "44": -2.414618730545044,
          "45": -1.4114279747009277,
          "46": 8.051717758178711,
          "47": 1.7471860647201538,
          "48": 2.1769211292266846,
          "49": -8.889168739318848,
          "50": -9.686362266540527,
          "51": 0.7666519284248352,
          "52": -3.630354166030884,
          "53": -12.932908058166504,
          "54": 8.474984169006348,
          "55": -2.9076361656188965,
          "56": -15.605663299560547,
          "57": -1.4170045852661133,
          "58": 3.4075489044189453,
          "59": -0.588918149471283,
          "60": -5.671459197998047,
          "61": -18.385717391967773,
          "62": 11.426928520202637,
          "63": 1.0457005500793457,
          "64": 0.686918318271637,
          "65": -3.458184003829956,
          "66": 6.83089017868042,
          "67": -0.19915425777435303,
          "68": 6.981224536895752,
          "69": 2.564753532409668,
          "70": -7.860039710998535,
          "71": 4.313555717468262,
          "72": 1.0799041986465454,
          "73": -1.0956364870071411,
          "74": -5.010719299316406,
          "75": -1.2909839153289795,
          "76": -19.16274642944336,
          "77": 0.4673377275466919,
          "78": 7.266079425811768,
          "79": 3.9432437419891357,
          "80": -9.99418830871582,
          "81": -59.324310302734375,
          "82": -2.5422844886779785,
          "83": 2.4143013954162598,
          "84": 1.9391571283340454,
          "85": 0.08497557789087296,
          "86": -4.611042022705078,
          "87": 28.096328735351562,
          "88": 30.894895553588867,
          "89": -3.603130578994751,
          "90": 1.1321158409118652,
          "91": 6.0677103996276855,
          "92": -3.769129514694214,
          "93": -23.394084930419922,
          "94": 11.474762916564941,
          "95": -3.1838958263397217,
          "96": -35.7489013671875,
          "97": 3.5377657413482666,
          "98": 4.807675361633301,
          "99": 29.706340789794922,
          "100": -5.940155506134033,
          "101": -24.997360229492188,
          "102": 9.107931137084961,
          "103": 5.313543319702148,
          "104": -7.260838031768799,
          "105": 9.103693008422852,
          "106": 3.2912585735321045,
          "107": -18.338499069213867,
          "108": -37.30412673950195,
          "109": 9.635616302490234,
          "110": 0.264621376991272,
          "111": 4.940118312835693,
          "112": -7.512803554534912,
          "113": -44.253536224365234,
          "114": -19.610660552978516,
          "115": 2.8110055923461914,
          "116": -13.566972732543945,
          "117": -11.659278869628906,
          "118": -29.447858810424805,
          "119": 24.343585968017578,
          "120": 0.567236602306366,
          "121": -57.5849723815918,
          "122": -0.7170223593711853,
          "123": -1.9326950311660767,
          "124": 0.3575461208820343,
          "125": -7.933139324188232,
          "126": -8.465441703796387,
          "127": -19.073461532592773,
          "128": -9.091874122619629,
          "129": 0.6892841458320618,
          "130": -1.8286652565002441,
          "131": 2.3688371181488037,
          "132": -1.9112849235534668,
          "133": 32.12953567504883,
          "134": -2.985062599182129,
          "135": 2.4354817867279053,
          "136": -7.466350555419922,
          "137": -2.4098622798919678,
          "138": -7.40680456161499,
          "139": 10.315323829650879,
          "140": -1.1438028812408447,
          "141": -10.089459419250488,
          "142": 12.287016868591309,
          "143": -0.2380957305431366,
          "144": -0.07805667817592621,
          "145": 27.3292236328125,
          "146": 29.960845947265625,
          "147": 20.944351196289062,
          "148": 8.571113586425781,
          "149": -0.3141525387763977,
          "150": -10.0162992477417,
          "151": 0.9128571152687073,
          "152": -7.574996471405029,
          "153": 5.081867694854736,
          "154": 1.449341893196106,
          "155": 0.22763603925704956,
          "156": -6.042379379272461,
          "157": -1.1468780040740967,
          "158": 25.85051727294922,
          "159": 31.529237747192383,
          "160": -23.445178985595703,
          "161": -30.813636779785156,
          "162": 9.387105941772461,
          "163": -0.1901153326034546,
          "164": -1.3735642433166504,
          "165": 3.957855463027954,
          "166": 10.119007110595703,
          "167": 6.591161727905273,
          "168": -1.869948148727417,
          "169": 7.684860706329346,
          "170": -3.6980481147766113,
          "171": 4.040588855743408,
          "172": -6.429973125457764,
          "173": -11.209038734436035,
          "174": -15.009958267211914,
          "175": 2.5936379432678223,
          "176": -12.590115547180176,
          "177": -3.5654966831207275,
          "178": 6.154778480529785,
          "179": 3.0790836811065674,
          "180": -12.417364120483398,
          "181": 17.27323341369629,
          "182": -23.63496208190918,
          "183": -1.2678121328353882,
          "184": 3.1006808280944824,
          "185": -5.702090740203857,
          "186": 15.10694408416748,
          "187": 2.050966739654541,
          "188": -8.31985092163086,
          "189": 10.541940689086914,
          "190": -0.4409233331680298,
          "191": 1.7030028104782104,
          "192": -8.263343811035156,
          "193": -13.219221115112305,
          "194": 2.7903530597686768,
          "195": -3.3325564861297607,
          "196": -0.5399718284606934,
          "197": 4.833768844604492,
          "198": 9.008676528930664,
          "199": 2.60449481010437,
          "200": 7.916290283203125,
          "201": -7.312171459197998,
          "202": 3.00938081741333,
          "203": -15.485284805297852,
          "204": 12.565069198608398,
          "205": 20.069194793701172,
          "206": 12.254901885986328,
          "207": 7.514316558837891,
          "208": 19.059494018554688,
          "209": -44.34341049194336,
          "210": -3.596705675125122,
          "211": -0.22005967795848846,
          "212": 2.767289161682129,
          "213": 18.9490966796875,
          "214": 17.639944076538086,
          "215": 34.893577575683594,
          "216": 6.270574569702148,
          "217": -81.94175720214844,
          "218": -30.519336700439453,
          "219": 11.05981159210205,
          "220": 1.5352102518081665,
          "221": -5.9924445152282715,
          "222": -7.070997714996338,
          "223": -4.058042526245117,
          "224": 4.5065016746521,
          "225": 3.037140369415283,
          "226": 27.26091766357422,
          "227": -0.4314192235469818,
          "228": -20.62706184387207,
          "229": -11.254880905151367,
          "230": 17.995773315429688,
          "231": -1.7130978107452393,
          "232": 3.117480516433716,
          "233": 15.828010559082031,
          "234": 10.790651321411133,
          "235": -7.323492527008057,
          "236": -27.890249252319336,
          "237": 5.454321384429932,
          "238": 0.15167418122291565,
          "239": 6.609423637390137,
          "240": -12.302253723144531,
          "241": -66.02149200439453,
          "242": 2.742401361465454,
          "243": -0.3235645890235901,
          "244": -11.403665542602539,
          "245": 3.4516026973724365,
          "246": 18.443857192993164,
          "247": -12.202164649963379,
          "248": 2.593810558319092,
          "249": -20.50458335876465,
          "250": 0.7142360210418701,
          "251": -2.824083089828491,
          "252": -2.028762102127075,
          "253": 2.2780134677886963,
          "254": -4.099456310272217,
          "255": 2.2328433990478516,
          "256": 13.734713554382324,
          "257": 5.58018159866333,
          "258": 7.394906997680664,
          "259": 18.1260986328125,
          "260": -0.33281397819519043,
          "261": -34.89345932006836,
          "262": -17.147510528564453,
          "263": -8.272736549377441,
          "264": -36.83899688720703,
          "265": 4.215995788574219,
          "266": 7.2420148849487305,
          "267": -7.371110916137695,
          "268": 22.099756240844727,
          "269": -103.15413665771484,
          "270": 6.2661051750183105,
          "271": -7.127557277679443,
          "272": 10.906225204467773,
          "273": 6.40854024887085,
          "274": 12.533546447753906,
          "275": 37.8091926574707,
          "276": 14.960484504699707,
          "277": 7.210773944854736,
          "278": -32.90459060668945,
          "279": -6.7635111808776855,
          "280": -1.0647504329681396,
          "281": -128.78810119628906,
          "282": 3.993565797805786,
          "283": 0.4137379825115204,
          "284": -0.7809519171714783,
          "285": 1.6780438423156738,
          "286": -2.1757023334503174,
          "287": 2.2470946311950684,
          "288": -22.54146385192871,
          "289": 5.301516532897949,
          "290": 2.764996290206909,
          "291": 0.9279515743255615,
          "292": -0.9499728083610535,
          "293": 30.700847625732422,
          "294": 3.075464963912964,
          "295": 0.6937510371208191,
          "296": -5.288296699523926,
          "297": -4.955897808074951,
          "298": -14.79909610748291,
          "299": 41.05799865722656,
          "300": 0.9422309994697571,
          "301": -11.162155151367188,
          "302": -3.410564661026001,
          "303": -3.1229195594787598,
          "304": -12.71923828125,
          "305": 5.601291656494141,
          "306": -0.37806910276412964,
          "307": -0.29771390557289124,
          "308": 6.857409954071045,
          "309": -32.432579040527344,
          "310": 1.2840676307678223,
          "311": 0.455680251121521,
          "312": 3.052454710006714,
          "313": -1.3417738676071167,
          "314": 9.044844627380371,
          "315": -0.0007534082396887243,
          "316": 6.406015872955322,
          "317": -174.74305725097656,
          "318": -12.184168815612793,
          "319": -4.169520854949951,
          "320": -23.449377059936523,
          "321": -87.17564392089844,
          "322": 14.724732398986816,
          "323": -1.7519283294677734,
          "324": -2.9552152156829834,
          "325": 6.547947883605957,
          "326": -1.5618318319320679,
          "327": -13.097838401794434,
          "328": -25.397497177124023,
          "329": 18.273468017578125,
          "330": -1.3785903453826904,
          "331": 0.14030282199382782,
          "332": -19.82256317138672,
          "333": 16.04082679748535,
          "334": 7.320380210876465,
          "335": -2.26470685005188,
          "336": -7.486461639404297,
          "337": -2.801813840866089,
          "338": -27.002483367919922,
          "339": 27.267065048217773,
          "340": 4.697360515594482,
          "341": -5.200791835784912,
          "342": -1.0460216999053955,
          "343": -0.5682057738304138,
          "344": 0.9019318222999573,
          "345": 10.355257034301758,
          "346": 19.20084571838379,
          "347": -0.4294202923774719,
          "348": 6.143180847167969,
          "349": -17.40752410888672,
          "350": -12.99020004272461,
          "351": 0.5619972944259644,
          "352": -2.3628652095794678,
          "353": 1.9685885906219482,
          "354": 9.680875778198242,
          "355": -3.1125402450561523,
          "356": 4.619842529296875,
          "357": 3.736534833908081,
          "358": 39.93705749511719,
          "359": 6.409724712371826,
          "360": -4.306395053863525,
          "361": -10.4915189743042,
          "362": -9.133553504943848,
          "363": -1.187556505203247,
          "364": 0.8875399231910706,
          "365": -5.48826789855957,
          "366": 3.7419795989990234,
          "367": -11.398902893066406,
          "368": 14.52291488647461,
          "369": 2.8212122917175293,
          "370": 4.41940975189209,
          "371": 1.3016891479492188,
          "372": -1.5273966789245605,
          "373": -35.33669662475586,
          "374": -2.5675127506256104,
          "375": 0.03378397971391678,
          "376": 21.046140670776367,
          "377": -0.32637888193130493,
          "378": 8.075316429138184,
          "379": 0.247955322265625,
          "380": -1.7556253671646118,
          "381": -17.084171295166016,
          "382": -4.497135639190674,
          "383": 0.988987147808075,
          "384": -0.9081131815910339,
          "385": 11.68660831451416,
          "386": 28.808691024780273,
          "387": 3.5748801231384277,
          "388": -12.703100204467773,
          "389": -7.557649612426758,
          "390": 2.238455057144165,
          "391": -2.2463998794555664,
          "392": 3.4461536407470703,
          "393": -8.895545959472656,
          "394": 28.16626739501953,
          "395": -0.6322898268699646,
          "396": 9.88673210144043,
          "397": 0.33671101927757263,
          "398": 27.513710021972656,
          "399": -4.181309700012207
        }
      },
      "inputBias": {
        "rows": 20,
        "columns": 1,
        "weights": {
          "0": -0.582526683807373,
          "1": 9.96235466003418,
          "2": 0.031795524060726166,
          "3": -0.4140690565109253,
          "4": -10.796059608459473,
          "5": 0.38170191645622253,
          "6": 0.7866618633270264,
          "7": -0.9789165258407593,
          "8": -0.17583341896533966,
          "9": 0.1280956119298935,
          "10": 0.25105562806129456,
          "11": 0.6101855039596558,
          "12": -1.3529704809188843,
          "13": 0.8669211864471436,
          "14": -2.0501623153686523,
          "15": 7.1557512283325195,
          "16": 2.1932969093322754,
          "17": -0.67515629529953,
          "18": -0.33198830485343933,
          "19": 1.0994882583618164
        }
      },
      "forgetMatrix": {
        "rows": 20,
        "columns": 1,
        "weights": {
          "0": -6.918227672576904,
          "1": -7.663972854614258,
          "2": -4.067009449005127,
          "3": 4.320297718048096,
          "4": 2.4804821014404297,
          "5": -1.748838186264038,
          "6": 7.678438186645508,
          "7": 15.448182106018066,
          "8": 4.761070728302002,
          "9": -3.509385585784912,
          "10": 14.034045219421387,
          "11": 4.549572467803955,
          "12": -3.722649335861206,
          "13": -5.054206848144531,
          "14": 6.589130878448486,
          "15": -3.445976972579956,
          "16": 3.9616141319274902,
          "17": 36.67143630981445,
          "18": 3.34907865524292,
          "19": 4.567066192626953
        }
      },
      "forgetHidden": {
        "rows": 20,
        "columns": 20,
        "weights": {
          "0": -30.726558685302734,
          "1": 9.589445114135742,
          "2": -3.925839900970459,
          "3": -0.8521248698234558,
          "4": -9.292093276977539,
          "5": 18.322839736938477,
          "6": 22.295520782470703,
          "7": 16.167463302612305,
          "8": 11.489752769470215,
          "9": -23.70072364807129,
          "10": -10.864194869995117,
          "11": 13.017434120178223,
          "12": -12.895096778869629,
          "13": 16.82782554626465,
          "14": 1.2982348203659058,
          "15": 8.18028450012207,
          "16": -7.030348300933838,
          "17": -77.60753631591797,
          "18": -32.08683395385742,
          "19": 17.085050582885742,
          "20": 3.8666062355041504,
          "21": -4.406209468841553,
          "22": 2.006664752960205,
          "23": -10.858535766601562,
          "24": -25.032934188842773,
          "25": 5.955051422119141,
          "26": -3.0694894790649414,
          "27": -1.7679041624069214,
          "28": 7.093245983123779,
          "29": -76.07058715820312,
          "30": -0.38171690702438354,
          "31": 4.008188724517822,
          "32": 7.324582099914551,
          "33": -0.31270214915275574,
          "34": 4.719302177429199,
          "35": 20.25730323791504,
          "36": 6.348888397216797,
          "37": 11.604551315307617,
          "38": 2.638441324234009,
          "39": 4.920583724975586,
          "40": -3.53647780418396,
          "41": 23.791461944580078,
          "42": -22.57239532470703,
          "43": 0.4172506034374237,
          "44": 6.316908836364746,
          "45": 26.599393844604492,
          "46": 11.571484565734863,
          "47": -23.464794158935547,
          "48": 31.684701919555664,
          "49": -8.93582534790039,
          "50": -13.723678588867188,
          "51": -4.568847179412842,
          "52": -0.6562483906745911,
          "53": -26.92865753173828,
          "54": 22.43600082397461,
          "55": -4.888545036315918,
          "56": 31.809741973876953,
          "57": -10.34532356262207,
          "58": 43.4677619934082,
          "59": -13.131695747375488,
          "60": 12.220464706420898,
          "61": -69.81211853027344,
          "62": 28.143596649169922,
          "63": 0.31453847885131836,
          "64": -1.024283528327942,
          "65": -10.491390228271484,
          "66": -12.371888160705566,
          "67": -31.040224075317383,
          "68": -72.26793670654297,
          "69": 28.766881942749023,
          "70": 22.398588180541992,
          "71": 4.090452671051025,
          "72": -4.863722324371338,
          "73": 5.657216548919678,
          "74": -49.25830078125,
          "75": 2.4751086235046387,
          "76": -23.841949462890625,
          "77": -2.209958791732788,
          "78": -62.00096893310547,
          "79": 18.142019271850586,
          "80": -3.8365719318389893,
          "81": 50.72903060913086,
          "82": -13.447768211364746,
          "83": 2.1900339126586914,
          "84": 5.749632358551025,
          "85": -7.048243999481201,
          "86": -4.214825630187988,
          "87": 5.009706974029541,
          "88": 8.427416801452637,
          "89": -3.8033738136291504,
          "90": 6.694973945617676,
          "91": -4.13429594039917,
          "92": -0.4887004494667053,
          "93": -20.558012008666992,
          "94": 15.133733749389648,
          "95": -6.450998306274414,
          "96": 6.873394966125488,
          "97": 3.8567211627960205,
          "98": 1.7440636157989502,
          "99": 16.461515426635742,
          "100": 6.856321811676025,
          "101": -2.7333104610443115,
          "102": -26.14447593688965,
          "103": 1.8528622388839722,
          "104": 14.002097129821777,
          "105": 9.191141128540039,
          "106": 14.161808967590332,
          "107": 3.3724467754364014,
          "108": 64.28350830078125,
          "109": 1.2907416820526123,
          "110": -14.803762435913086,
          "111": -8.488868713378906,
          "112": 1.75460684299469,
          "113": -7.0182108879089355,
          "114": 37.7226448059082,
          "115": -17.776123046875,
          "116": -6.9943413734436035,
          "117": 7.965202808380127,
          "118": 29.402084350585938,
          "119": 4.907423973083496,
          "120": -13.765210151672363,
          "121": 52.54520797729492,
          "122": -16.46122932434082,
          "123": -0.22216452658176422,
          "124": 6.236228942871094,
          "125": -41.61817932128906,
          "126": 0.3234266936779022,
          "127": -24.772539138793945,
          "128": -61.980587005615234,
          "129": 5.183107376098633,
          "130": 1.7977482080459595,
          "131": -10.125678062438965,
          "132": 8.288660049438477,
          "133": 50.31608581542969,
          "134": -2.7765917778015137,
          "135": -10.065743446350098,
          "136": -5.332841396331787,
          "137": 30.067325592041016,
          "138": -30.538515090942383,
          "139": -20.615192413330078,
          "140": 14.03608512878418,
          "141": -4.802616596221924,
          "142": 2.8413028717041016,
          "143": -3.7363083362579346,
          "144": -1.1520984172821045,
          "145": -16.867816925048828,
          "146": -9.541912078857422,
          "147": 12.947060585021973,
          "148": 25.057697296142578,
          "149": -10.325457572937012,
          "150": 10.921096801757812,
          "151": 2.0261881351470947,
          "152": -0.4600723087787628,
          "153": -19.591020584106445,
          "154": 17.71506690979004,
          "155": -8.283177375793457,
          "156": -7.3403520584106445,
          "157": 16.07976722717285,
          "158": -13.373581886291504,
          "159": 12.424464225769043,
          "160": -24.664297103881836,
          "161": -34.704124450683594,
          "162": -14.498186111450195,
          "163": 4.87823486328125,
          "164": -32.89252853393555,
          "165": 4.787104606628418,
          "166": 6.214812278747559,
          "167": 1.3741978406906128,
          "168": 15.503658294677734,
          "169": -27.745258331298828,
          "170": -23.635908126831055,
          "171": 31.843460083007812,
          "172": -7.2596049308776855,
          "173": 6.185346603393555,
          "174": 17.907407760620117,
          "175": -6.307324409484863,
          "176": -1.5453486442565918,
          "177": -0.16704510152339935,
          "178": 11.666778564453125,
          "179": 76.47237396240234,
          "180": -2.4250078201293945,
          "181": -38.12814712524414,
          "182": 11.430231094360352,
          "183": -2.025960922241211,
          "184": 1.943000316619873,
          "185": 28.278156280517578,
          "186": 17.28086280822754,
          "187": 78.80853271484375,
          "188": 78.03736114501953,
          "189": 1.7572568655014038,
          "190": -8.92467975616455,
          "191": 1.8310866355895996,
          "192": 0.03626558184623718,
          "193": -19.47372817993164,
          "194": -5.95587158203125,
          "195": 5.028304576873779,
          "196": -14.480504989624023,
          "197": -6.455429553985596,
          "198": 15.190295219421387,
          "199": -2.926863431930542,
          "200": -28.854351043701172,
          "201": -20.443164825439453,
          "202": 11.857552528381348,
          "203": -0.27700313925743103,
          "204": -1.750098466873169,
          "205": 16.692970275878906,
          "206": 20.885534286499023,
          "207": -0.36630725860595703,
          "208": -6.15927267074585,
          "209": 17.060251235961914,
          "210": -38.80636215209961,
          "211": -0.36423131823539734,
          "212": -1.2513744831085205,
          "213": 5.41404390335083,
          "214": -0.9062309861183167,
          "215": -0.7878984808921814,
          "216": 1.4801816940307617,
          "217": 6.164924144744873,
          "218": 49.19524002075195,
          "219": 13.30924129486084,
          "220": 4.181502342224121,
          "221": 16.781951904296875,
          "222": 3.56373929977417,
          "223": 9.954455375671387,
          "224": -36.57172775268555,
          "225": -11.858412742614746,
          "226": 8.952308654785156,
          "227": -0.9101448655128479,
          "228": 13.753780364990234,
          "229": -44.678470611572266,
          "230": -13.272019386291504,
          "231": 9.208414077758789,
          "232": 11.958011627197266,
          "233": -1.8086785078048706,
          "234": -1.7129747867584229,
          "235": 40.274322509765625,
          "236": 1.7584831714630127,
          "237": -4.627945423126221,
          "238": -17.843219757080078,
          "239": -1.096448302268982,
          "240": 1.4487402439117432,
          "241": 21.553462982177734,
          "242": 5.631640434265137,
          "243": -2.6942169666290283,
          "244": 0.36398863792419434,
          "245": 4.614068984985352,
          "246": 3.991297483444214,
          "247": 4.756009101867676,
          "248": -5.99716329574585,
          "249": -35.94313430786133,
          "250": 0.0405791774392128,
          "251": -0.869259774684906,
          "252": -4.096660614013672,
          "253": -0.09882689267396927,
          "254": 5.047933101654053,
          "255": 11.368860244750977,
          "256": 3.2285404205322266,
          "257": -10.338692665100098,
          "258": 0.395857036113739,
          "259": 0.924502432346344,
          "260": 10.49077033996582,
          "261": 26.579076766967773,
          "262": -3.541609764099121,
          "263": 1.398775577545166,
          "264": -41.77219772338867,
          "265": -3.89798641204834,
          "266": -2.744331121444702,
          "267": 2.5364575386047363,
          "268": 26.20950698852539,
          "269": -85.95040130615234,
          "270": -6.223124027252197,
          "271": -2.117438793182373,
          "272": -7.1948370933532715,
          "273": -2.2745933532714844,
          "274": 9.725303649902344,
          "275": 101.06602478027344,
          "276": 4.428330421447754,
          "277": -33.00936508178711,
          "278": 6.262812614440918,
          "279": -4.152597904205322,
          "280": -4.520999908447266,
          "281": -9.498952865600586,
          "282": -4.412883758544922,
          "283": 17.87608528137207,
          "284": 15.428352355957031,
          "285": 25.47578239440918,
          "286": 19.52994728088379,
          "287": 22.747203826904297,
          "288": 35.6009521484375,
          "289": 54.077659606933594,
          "290": -4.261709213256836,
          "291": 3.717735528945923,
          "292": -7.3932037353515625,
          "293": -11.929561614990234,
          "294": 14.220525741577148,
          "295": -27.29566764831543,
          "296": -0.47005975246429443,
          "297": -8.737787246704102,
          "298": 70.36363220214844,
          "299": 27.313112258911133,
          "300": -24.698047637939453,
          "301": 44.94975280761719,
          "302": -61.121158599853516,
          "303": -2.6670165061950684,
          "304": 1.6677838563919067,
          "305": 14.524442672729492,
          "306": -33.079566955566406,
          "307": 37.546085357666016,
          "308": 43.97153854370117,
          "309": -37.97264099121094,
          "310": -25.977703094482422,
          "311": -0.614585816860199,
          "312": 1.417647123336792,
          "313": -29.815080642700195,
          "314": 44.17756652832031,
          "315": -4.295865535736084,
          "316": 42.71858596801758,
          "317": 11.269140243530273,
          "318": 66.58760833740234,
          "319": -61.63225173950195,
          "320": 3.5945966243743896,
          "321": 12.00031566619873,
          "322": -13.173967361450195,
          "323": 10.761466026306152,
          "324": -6.481049060821533,
          "325": -9.504298210144043,
          "326": 5.923598766326904,
          "327": -4.750405311584473,
          "328": -2.6751043796539307,
          "329": 7.662286758422852,
          "330": 6.468605041503906,
          "331": 3.701143503189087,
          "332": 9.88302230834961,
          "333": 0.24683146178722382,
          "334": 3.665271520614624,
          "335": 0.5880012512207031,
          "336": 23.434940338134766,
          "337": -2.6704788208007812,
          "338": 3.9279141426086426,
          "339": -12.018016815185547,
          "340": -8.96591854095459,
          "341": -7.511494159698486,
          "342": 4.0132951736450195,
          "343": 9.360036849975586,
          "344": -4.652318954467773,
          "345": 15.837602615356445,
          "346": -1.9429316520690918,
          "347": 13.545402526855469,
          "348": 49.27776336669922,
          "349": 6.871554851531982,
          "350": -8.839973449707031,
          "351": 8.993544578552246,
          "352": -4.065732002258301,
          "353": -15.19994831085205,
          "354": 29.61011505126953,
          "355": 1.8797435760498047,
          "356": 1.996988296508789,
          "357": 22.156543731689453,
          "358": -14.440019607543945,
          "359": 29.063644409179688,
          "360": -0.632953405380249,
          "361": 2.8597562313079834,
          "362": 10.27112102508545,
          "363": -14.754894256591797,
          "364": 19.131351470947266,
          "365": -8.995142936706543,
          "366": -3.1599555015563965,
          "367": -8.874750137329102,
          "368": -17.223377227783203,
          "369": 3.602085590362549,
          "370": 7.632653713226318,
          "371": -2.852745294570923,
          "372": -1.8899937868118286,
          "373": 4.699929237365723,
          "374": -11.877813339233398,
          "375": -4.13910436630249,
          "376": -3.907097339630127,
          "377": 14.61234188079834,
          "378": -25.420940399169922,
          "379": 2.239065647125244,
          "380": 1.5586333274841309,
          "381": -31.563365936279297,
          "382": -12.815667152404785,
          "383": 8.04059886932373,
          "384": 11.186991691589355,
          "385": 7.341983795166016,
          "386": -4.2625603675842285,
          "387": 3.0394210815429688,
          "388": -2.1334035396575928,
          "389": 72.42899322509766,
          "390": 7.040914058685303,
          "391": 9.26160717010498,
          "392": -13.44512939453125,
          "393": -3.8141300678253174,
          "394": 8.241443634033203,
          "395": -44.7340202331543,
          "396": -3.426222324371338,
          "397": 4.72802734375,
          "398": 28.74176788330078,
          "399": 2.8734304904937744
        }
      },
      "forgetBias": {
        "rows": 20,
        "columns": 1,
        "weights": {
          "0": 0,
          "1": 0,
          "2": 0,
          "3": 0,
          "4": 0,
          "5": 0,
          "6": 0,
          "7": 0,
          "8": 0,
          "9": 0,
          "10": 0,
          "11": 0,
          "12": 0,
          "13": 0,
          "14": 0,
          "15": 0,
          "16": 0,
          "17": 0,
          "18": 0,
          "19": 0
        }
      },
      "outputMatrix": {
        "rows": 20,
        "columns": 1,
        "weights": {
          "0": 0.0035335435532033443,
          "1": -0.8384817242622375,
          "2": 0.000642749248072505,
          "3": 0.004372436087578535,
          "4": 0.007098960690200329,
          "5": 2.987492561340332,
          "6": 8.620471000671387,
          "7": -0.004321555607020855,
          "8": -0.002055309945717454,
          "9": 0.0003978532331530005,
          "10": 0.00007901215576566756,
          "11": 0.002009604126214981,
          "12": 3.9892935752868652,
          "13": -0.0004930183058604598,
          "14": 15.692679405212402,
          "15": 0.6978147029876709,
          "16": -0.15275530517101288,
          "17": -0.0011329178232699633,
          "18": 2.9570326805114746,
          "19": -0.0050211395137012005
        }
      },
      "outputHidden": {
        "rows": 20,
        "columns": 20,
        "weights": {
          "0": 4.155642986297607,
          "1": -117.18302917480469,
          "2": -8.624211311340332,
          "3": -5.384969711303711,
          "4": -3.8144147396087646,
          "5": 33.49503707885742,
          "6": 40.18943405151367,
          "7": 10.636894226074219,
          "8": 25.437097549438477,
          "9": -42.67118835449219,
          "10": -5.012763977050781,
          "11": -10.416396141052246,
          "12": -1.4306879043579102,
          "13": -14.995018005371094,
          "14": 2.479093074798584,
          "15": 7.119068145751953,
          "16": -17.572057723999023,
          "17": -6.790271759033203,
          "18": 36.87325668334961,
          "19": 30.807199478149414,
          "20": -4.307013511657715,
          "21": -68.50875091552734,
          "22": -26.18291664123535,
          "23": -1.6303415298461914,
          "24": 0.6211778521537781,
          "25": 1.9760557413101196,
          "26": 1.140895128250122,
          "27": 17.265460968017578,
          "28": 21.26241111755371,
          "29": -27.499452590942383,
          "30": -0.7949563264846802,
          "31": -2.2119758129119873,
          "32": 2.7521300315856934,
          "33": -12.658446311950684,
          "34": 38.89738845825195,
          "35": -3.8320064544677734,
          "36": -22.37325096130371,
          "37": 2.941441059112549,
          "38": 7.1603593826293945,
          "39": -16.492624282836914,
          "40": -6.22422456741333,
          "41": -173.995361328125,
          "42": -10.077481269836426,
          "43": 0.7144142985343933,
          "44": -0.8302276134490967,
          "45": -9.769909858703613,
          "46": -18.241971969604492,
          "47": 1.0893964767456055,
          "48": -26.09796714782715,
          "49": -14.172581672668457,
          "50": 3.276366710662842,
          "51": -0.8870159387588501,
          "52": 0.25636738538742065,
          "53": 19.051530838012695,
          "54": 21.318830490112305,
          "55": -1.898040533065796,
          "56": -21.17717170715332,
          "57": -7.264389514923096,
          "58": -34.7192268371582,
          "59": 28.353805541992188,
          "60": -2.5130069255828857,
          "61": -40.211395263671875,
          "62": -10.17599105834961,
          "63": 8.495356559753418,
          "64": -18.691730499267578,
          "65": -2.826869249343872,
          "66": 26.390478134155273,
          "67": 12.11290168762207,
          "68": -1.0551917552947998,
          "69": -54.7890625,
          "70": -19.771821975708008,
          "71": 17.263111114501953,
          "72": -4.645837306976318,
          "73": -18.019094467163086,
          "74": 29.947811126708984,
          "75": 46.82366943359375,
          "76": 13.851685523986816,
          "77": -9.590948104858398,
          "78": 19.599023818969727,
          "79": 8.229035377502441,
          "80": -5.334931373596191,
          "81": -100.35679626464844,
          "82": 0.3075411915779114,
          "83": 2.164945363998413,
          "84": -1.4851456880569458,
          "85": 0.7638659477233887,
          "86": 4.538941383361816,
          "87": -0.3372577130794525,
          "88": 2.848778247833252,
          "89": -10.413941383361816,
          "90": -0.1778179109096527,
          "91": -0.9679312705993652,
          "92": 0.5905327796936035,
          "93": -8.409014701843262,
          "94": 5.859850883483887,
          "95": -1.1301687955856323,
          "96": 15.174115180969238,
          "97": 1.888824701309204,
          "98": -13.081119537353516,
          "99": 16.509267807006836,
          "100": -4.76390266418457,
          "101": -69.84921264648438,
          "102": 11.513824462890625,
          "103": 2.740262508392334,
          "104": -5.63266134262085,
          "105": -6.947951316833496,
          "106": -29.940275192260742,
          "107": -27.600759506225586,
          "108": -4.137781143188477,
          "109": 12.946990966796875,
          "110": 18.577194213867188,
          "111": 12.63717269897461,
          "112": -13.701685905456543,
          "113": -33.86521911621094,
          "114": -23.373464584350586,
          "115": 3.2853150367736816,
          "116": 4.820590019226074,
          "117": -8.012127876281738,
          "118": -40.8074951171875,
          "119": 29.90900421142578,
          "120": 0.9170774817466736,
          "121": -19.265317916870117,
          "122": -5.431684970855713,
          "123": 0.41673654317855835,
          "124": -3.564052104949951,
          "125": -7.705163955688477,
          "126": 27.06283187866211,
          "127": 2.8246917724609375,
          "128": 9.416569709777832,
          "129": 3.7761166095733643,
          "130": -6.588050842285156,
          "131": 9.592982292175293,
          "132": -15.27997875213623,
          "133": 2.863886833190918,
          "134": -6.071876525878906,
          "135": -6.98934268951416,
          "136": 9.871908187866211,
          "137": -13.39210319519043,
          "138": 14.93127727508545,
          "139": 26.97135353088379,
          "140": 8.087458610534668,
          "141": -75.57666015625,
          "142": -4.909252643585205,
          "143": 19.2039794921875,
          "144": -41.53437042236328,
          "145": 6.976923942565918,
          "146": -0.06263360381126404,
          "147": 2.213660478591919,
          "148": 20.080717086791992,
          "149": -17.1425838470459,
          "150": -2.6557490825653076,
          "151": 2.352857828140259,
          "152": 8.304620742797852,
          "153": 1.5053857564926147,
          "154": 16.52082633972168,
          "155": 15.582625389099121,
          "156": 5.003044128417969,
          "157": 18.179500579833984,
          "158": 23.908716201782227,
          "159": -16.831844329833984,
          "160": -3.9814231395721436,
          "161": -23.743379592895508,
          "162": 7.807417392730713,
          "163": -1.2683906555175781,
          "164": 1.1859509944915771,
          "165": 2.5232176780700684,
          "166": 2.404062509536743,
          "167": -4.66624641418457,
          "168": -1.6438642740249634,
          "169": 6.961289405822754,
          "170": 3.8684821128845215,
          "171": 2.4885220527648926,
          "172": -3.783066511154175,
          "173": 3.6266307830810547,
          "174": -5.715778350830078,
          "175": 0.6847339272499084,
          "176": 4.653494358062744,
          "177": -2.305488348007202,
          "178": -1.2481895685195923,
          "179": 13.26462173461914,
          "180": 1.7430201768875122,
          "181": -30.005239486694336,
          "182": -18.603044509887695,
          "183": -0.9153506755828857,
          "184": 1.3352996110916138,
          "185": 1.810972809791565,
          "186": 1.7864381074905396,
          "187": 3.693141222000122,
          "188": 38.257869720458984,
          "189": -15.176619529724121,
          "190": 0.5246184468269348,
          "191": -2.0025792121887207,
          "192": 1.9969905614852905,
          "193": -14.354000091552734,
          "194": 23.651235580444336,
          "195": -2.9100520610809326,
          "196": 0.8557407259941101,
          "197": 2.3360595703125,
          "198": 9.006888389587402,
          "199": 13.863819122314453,
          "200": -30.654865264892578,
          "201": -42.291160583496094,
          "202": -29.901975631713867,
          "203": -11.765334129333496,
          "204": 16.5764102935791,
          "205": 4.710168361663818,
          "206": 16.66472816467285,
          "207": 8.315356254577637,
          "208": 18.94723892211914,
          "209": -25.41881561279297,
          "210": -4.358715057373047,
          "211": 26.887662887573242,
          "212": -16.26313018798828,
          "213": -13.939179420471191,
          "214": 34.27204132080078,
          "215": -4.828155517578125,
          "216": 7.465767860412598,
          "217": -17.43924903869629,
          "218": 21.01990509033203,
          "219": 82.415771484375,
          "220": -12.322924613952637,
          "221": -65.15243530273438,
          "222": -5.75535774230957,
          "223": 0.9232056140899658,
          "224": -0.8188532590866089,
          "225": 1.9475713968276978,
          "226": 23.20562171936035,
          "227": -4.962871074676514,
          "228": 4.27545690536499,
          "229": -26.197025299072266,
          "230": -13.027666091918945,
          "231": -1.4882729053497314,
          "232": 0.4246227741241455,
          "233": -8.778908729553223,
          "234": 6.75850772857666,
          "235": -1.4387351274490356,
          "236": -49.69206619262695,
          "237": 1.0144367218017578,
          "238": 18.213623046875,
          "239": 20.396705627441406,
          "240": 3.5444467067718506,
          "241": -3.101891040802002,
          "242": 1.8392099142074585,
          "243": -1.5733118057250977,
          "244": -3.1595213413238525,
          "245": -2.2541449069976807,
          "246": -1.3474111557006836,
          "247": -3.2425193786621094,
          "248": 11.502840995788574,
          "249": 4.844244003295898,
          "250": 2.6284241676330566,
          "251": 2.2402989864349365,
          "252": -3.4691686630249023,
          "253": -4.403977394104004,
          "254": 7.424655437469482,
          "255": -7.842520236968994,
          "256": 0.9861127138137817,
          "257": -17.68435287475586,
          "258": -14.968851089477539,
          "259": 4.934506416320801,
          "260": -8.848910331726074,
          "261": -36.952327728271484,
          "262": -3.573591470718384,
          "263": 1.3368487358093262,
          "264": -22.52437400817871,
          "265": 8.93774700164795,
          "266": -5.310610294342041,
          "267": 2.496501922607422,
          "268": 20.87266731262207,
          "269": -14.005827903747559,
          "270": -11.191590309143066,
          "271": 20.031076431274414,
          "272": -8.340316772460938,
          "273": -1.326681137084961,
          "274": 5.066490650177002,
          "275": 13.545431137084961,
          "276": 4.345948219299316,
          "277": 19.796703338623047,
          "278": -27.54201316833496,
          "279": 10.122832298278809,
          "280": 2.601290464401245,
          "281": -3.14259672164917,
          "282": -0.5803482532501221,
          "283": -2.7508656978607178,
          "284": -14.651290893554688,
          "285": 3.95204496383667,
          "286": -3.2887184619903564,
          "287": 4.6692914962768555,
          "288": 7.358736515045166,
          "289": -5.264048099517822,
          "290": 1.626650094985962,
          "291": -0.36368897557258606,
          "292": 2.9203667640686035,
          "293": -3.9844162464141846,
          "294": 21.451316833496094,
          "295": 6.750777721405029,
          "296": -0.5812793970108032,
          "297": 4.151905059814453,
          "298": 9.055026054382324,
          "299": -0.2360827624797821,
          "300": -24.381309509277344,
          "301": -4.282070159912109,
          "302": 3.577448844909668,
          "303": -13.794900894165039,
          "304": 13.07773494720459,
          "305": -4.374447345733643,
          "306": 12.393866539001465,
          "307": 10.619392395019531,
          "308": 31.138113021850586,
          "309": 9.109464645385742,
          "310": 2.4565529823303223,
          "311": 14.32955265045166,
          "312": -13.536770820617676,
          "313": -97.04745483398438,
          "314": -12.746443748474121,
          "315": 0.1736205518245697,
          "316": 21.820871353149414,
          "317": 0.40825098752975464,
          "318": -7.401617527008057,
          "319": 5.903504848480225,
          "320": 0.6454812288284302,
          "321": -146.58966064453125,
          "322": -0.9966532588005066,
          "323": 0.559877872467041,
          "324": -3.4795804023742676,
          "325": -1.8830225467681885,
          "326": -0.9225949645042419,
          "327": 12.630906105041504,
          "328": -1.8498238325119019,
          "329": -17.515350341796875,
          "330": 2.1653168201446533,
          "331": 0.6932369470596313,
          "332": 1.5943015813827515,
          "333": 13.558045387268066,
          "334": -9.079841613769531,
          "335": 2.591697931289673,
          "336": -1.8696473836898804,
          "337": 0.43322429060935974,
          "338": -24.06424903869629,
          "339": -34.708518981933594,
          "340": -28.41673469543457,
          "341": -18.97124671936035,
          "342": -52.85713195800781,
          "343": -27.20283317565918,
          "344": 30.29668426513672,
          "345": -6.721571445465088,
          "346": -11.2201566696167,
          "347": -16.84259796142578,
          "348": -15.184317588806152,
          "349": -27.891136169433594,
          "350": 0.9783973097801208,
          "351": 31.7307186126709,
          "352": -4.18491268157959,
          "353": -10.665202140808105,
          "354": 10.244369506835938,
          "355": -1.806956171989441,
          "356": 13.005696296691895,
          "357": 1.0215562582015991,
          "358": -11.780008316040039,
          "359": 5.655970096588135,
          "360": 4.257080078125,
          "361": -31.281543731689453,
          "362": 12.907784461975098,
          "363": -4.630629062652588,
          "364": 5.861104488372803,
          "365": 1.3105586767196655,
          "366": 2.7014524936676025,
          "367": 8.215079307556152,
          "368": -2.5764713287353516,
          "369": -11.97671127319336,
          "370": 3.1807572841644287,
          "371": 1.224926233291626,
          "372": -17.319761276245117,
          "373": -16.612873077392578,
          "374": -11.640762329101562,
          "375": 6.113314151763916,
          "376": -9.029438972473145,
          "377": -18.202478408813477,
          "378": 6.10474157333374,
          "379": 6.586021900177002,
          "380": -8.542709350585938,
          "381": 7.249617576599121,
          "382": 2.3916187286376953,
          "383": 3.9104995727539062,
          "384": -1.9402045011520386,
          "385": 2.665315866470337,
          "386": 9.03812026977539,
          "387": 2.7078301906585693,
          "388": -3.3453750610351562,
          "389": 13.124439239501953,
          "390": -0.2875460684299469,
          "391": 3.0135507583618164,
          "392": -5.808167934417725,
          "393": 3.1574978828430176,
          "394": -10.715936660766602,
          "395": -3.4720709323883057,
          "396": -0.41856980323791504,
          "397": -0.5068193674087524,
          "398": 8.492973327636719,
          "399": -16.868637084960938
        }
      },
      "outputBias": {
        "rows": 20,
        "columns": 1,
        "weights": {
          "0": -0.7187798023223877,
          "1": 4.4609575271606445,
          "2": -2.52398419380188,
          "3": -1.0760191679000854,
          "4": -1.3756275177001953,
          "5": -2.4532532691955566,
          "6": -0.3278408944606781,
          "7": 4.550670146942139,
          "8": 0.003062482690438628,
          "9": -2.1083362102508545,
          "10": 0.17649659514427185,
          "11": -0.1426793336868286,
          "12": -0.6133754253387451,
          "13": 0.2885604202747345,
          "14": -1.2931785583496094,
          "15": 2.9494385719299316,
          "16": -0.37335819005966187,
          "17": 6.451915740966797,
          "18": -2.5836904048919678,
          "19": 0.4646584689617157
        }
      },
      "cellActivationMatrix": {
        "rows": 20,
        "columns": 1,
        "weights": {
          "0": -0.0003255816991440952,
          "1": -3.362600564956665,
          "2": 0.00013167988799978048,
          "3": 1.229764461517334,
          "4": -0.3610672652721405,
          "5": 0.001765287364833057,
          "6": 0.00018954295956064016,
          "7": 1.8859268426895142,
          "8": 0.4361541271209717,
          "9": 0.0005823851679451764,
          "10": -0.0007368688238784671,
          "11": 0.48788392543792725,
          "12": -0.0012604143703356385,
          "13": 0.000012256443369551562,
          "14": 0.04338785260915756,
          "15": 1.742370367050171,
          "16": -3.761066198348999,
          "17": -0.0066641103476285934,
          "18": 0.000736069108825177,
          "19": 0.00017904987907968462
        }
      },
      "cellActivationHidden": {
        "rows": 20,
        "columns": 20,
        "weights": {
          "0": -3.7685978412628174,
          "1": 0.578216016292572,
          "2": 0.9131831526756287,
          "3": 8.089491844177246,
          "4": -6.419042110443115,
          "5": 3.2477962970733643,
          "6": 1.5747110843658447,
          "7": 12.34986400604248,
          "8": -3.205382823944092,
          "9": 2.469181776046753,
          "10": -4.449736595153809,
          "11": -9.105233192443848,
          "12": 7.643470287322998,
          "13": -30.506078720092773,
          "14": 5.017423629760742,
          "15": -0.9250924587249756,
          "16": -6.6892805099487305,
          "17": 4.547874450683594,
          "18": 7.828582763671875,
          "19": -129.29327392578125,
          "20": 5.47782039642334,
          "21": 0.6467615365982056,
          "22": -0.6776531338691711,
          "23": -2.626051187515259,
          "24": 4.513071060180664,
          "25": -1.5805926322937012,
          "26": 0.04518619924783707,
          "27": -8.812276840209961,
          "28": -26.86300277709961,
          "29": 6.208529949188232,
          "30": 0.24196238815784454,
          "31": -6.732752799987793,
          "32": 3.486210584640503,
          "33": 3.086432933807373,
          "34": -3.8647873401641846,
          "35": 3.0654406547546387,
          "36": 2.415220260620117,
          "37": -4.293455600738525,
          "38": -13.956634521484375,
          "39": -6.9797043800354,
          "40": 1.6015630960464478,
          "41": 2.0064167976379395,
          "42": 11.077530860900879,
          "43": 15.65288257598877,
          "44": -11.926798820495605,
          "45": -11.429214477539062,
          "46": -11.489452362060547,
          "47": -15.178401947021484,
          "48": -36.45333480834961,
          "49": 13.787789344787598,
          "50": 1.245434284210205,
          "51": -5.741830825805664,
          "52": -1.844288945198059,
          "53": 63.540687561035156,
          "54": -13.438458442687988,
          "55": 3.9668686389923096,
          "56": -3.563608169555664,
          "57": 2.7677221298217773,
          "58": -27.242475509643555,
          "59": -16.07443618774414,
          "60": -0.2953176498413086,
          "61": 48.55367660522461,
          "62": 4.6631340980529785,
          "63": -0.5122366547584534,
          "64": 17.70524787902832,
          "65": -0.7646684050559998,
          "66": 9.085491180419922,
          "67": 1.7656852006912231,
          "68": -6.708104133605957,
          "69": 14.819106101989746,
          "70": -0.5249072909355164,
          "71": 1.00918710231781,
          "72": -9.644184112548828,
          "73": 2.17769455909729,
          "74": -4.009834289550781,
          "75": -14.572214126586914,
          "76": -2.8615753650665283,
          "77": 0.4922143220901489,
          "78": -0.6011661887168884,
          "79": 3.8629283905029297,
          "80": 4.724377155303955,
          "81": -33.22758102416992,
          "82": -5.296524524688721,
          "83": -3.624415874481201,
          "84": 2.4790735244750977,
          "85": 1.3617916107177734,
          "86": -11.101277351379395,
          "87": -0.10381831228733063,
          "88": 1.6706819534301758,
          "89": -8.525283813476562,
          "90": 4.01998233795166,
          "91": -1.0227794647216797,
          "92": 1.4885269403457642,
          "93": -6.79427433013916,
          "94": 7.584632396697998,
          "95": -1.3841172456741333,
          "96": -11.177301406860352,
          "97": -0.2198771834373474,
          "98": -2.2670223712921143,
          "99": -4.695733070373535,
          "100": 2.3510143756866455,
          "101": -110.05232238769531,
          "102": -4.5814080238342285,
          "103": -4.542264461517334,
          "104": 4.277116775512695,
          "105": 4.616404056549072,
          "106": 22.545862197875977,
          "107": 11.50791072845459,
          "108": 21.191465377807617,
          "109": -11.579285621643066,
          "110": -4.0784077644348145,
          "111": -3.0772922039031982,
          "112": 2.7220542430877686,
          "113": -0.29542404413223267,
          "114": 15.115742683410645,
          "115": -5.586935997009277,
          "116": -10.215508460998535,
          "117": 2.8257391452789307,
          "118": 41.04255676269531,
          "119": 37.572723388671875,
          "120": -6.098048686981201,
          "121": -15.919303894042969,
          "122": 4.056700229644775,
          "123": 0.8305584788322449,
          "124": -0.5300549864768982,
          "125": -5.160672664642334,
          "126": -7.395226955413818,
          "127": -11.385050773620605,
          "128": -20.107694625854492,
          "129": 5.200826168060303,
          "130": 6.058687686920166,
          "131": 2.4566268920898438,
          "132": -2.3463706970214844,
          "133": 78.6375732421875,
          "134": -9.208759307861328,
          "135": 3.4634597301483154,
          "136": -11.331829071044922,
          "137": -1.8119155168533325,
          "138": -7.981757640838623,
          "139": -9.527963638305664,
          "140": 6.498133182525635,
          "141": 2.038588047027588,
          "142": -4.344449520111084,
          "143": 1.3486257791519165,
          "144": 0.6160522103309631,
          "145": 0.8419841527938843,
          "146": -1.3328421115875244,
          "147": 2.336103916168213,
          "148": 11.719685554504395,
          "149": -13.583541870117188,
          "150": 0.27220040559768677,
          "151": 0.20181912183761597,
          "152": -1.714266061782837,
          "153": -4.698829174041748,
          "154": 7.496325492858887,
          "155": 3.5727219581604004,
          "156": -1.9247443675994873,
          "157": -1.2063215970993042,
          "158": -6.517595291137695,
          "159": 2.98292875289917,
          "160": -0.9598143696784973,
          "161": -33.9820671081543,
          "162": -1.992802619934082,
          "163": -1.2244421243667603,
          "164": 1.1589747667312622,
          "165": 0.6382576823234558,
          "166": 1.171872854232788,
          "167": 3.4241855144500732,
          "168": 12.032795906066895,
          "169": -1.921126127243042,
          "170": -1.0251235961914062,
          "171": 0.8115161061286926,
          "172": -0.7883860468864441,
          "173": -38.12860107421875,
          "174": 1.4140974283218384,
          "175": -0.7750729322433472,
          "176": -23.016204833984375,
          "177": -0.5324673652648926,
          "178": 3.594122886657715,
          "179": 11.183263778686523,
          "180": 0.7095178961753845,
          "181": 18.866579055786133,
          "182": 2.9481945037841797,
          "183": -3.7166028022766113,
          "184": 23.075424194335938,
          "185": -4.321775436401367,
          "186": 0.7294807434082031,
          "187": 1.114587664604187,
          "188": 0.023686205968260765,
          "189": -16.561561584472656,
          "190": 12.8855562210083,
          "191": -8.51718807220459,
          "192": 0.16644583642482758,
          "193": -1.12568199634552,
          "194": -5.7786760330200195,
          "195": -2.382159471511841,
          "196": -5.8971147537231445,
          "197": -5.755168437957764,
          "198": 0.051562000066041946,
          "199": 0.8609089851379395,
          "200": 1.6356498003005981,
          "201": 28.038406372070312,
          "202": 4.927469730377197,
          "203": 1.0145657062530518,
          "204": -0.39927375316619873,
          "205": 1.3814754486083984,
          "206": 4.569106101989746,
          "207": 0.13140465319156647,
          "208": -0.3809947371482849,
          "209": 1.0656729936599731,
          "210": 10.268370628356934,
          "211": -0.8569732904434204,
          "212": 2.2273476123809814,
          "213": 53.44757080078125,
          "214": -0.6129191517829895,
          "215": 0.19354553520679474,
          "216": 20.572011947631836,
          "217": 0.16669555008411407,
          "218": 3.1668195724487305,
          "219": -15.124381065368652,
          "220": -17.519208908081055,
          "221": -43.17122268676758,
          "222": -4.884125232696533,
          "223": 7.215068340301514,
          "224": -6.7783613204956055,
          "225": 2.0400779247283936,
          "226": -6.371145725250244,
          "227": -1.7192634344100952,
          "228": 9.27858829498291,
          "229": 2.2036378383636475,
          "230": -5.6324310302734375,
          "231": 32.364715576171875,
          "232": -5.205667972564697,
          "233": 2.7404816150665283,
          "234": 8.741969108581543,
          "235": 10.388832092285156,
          "236": 7.682075500488281,
          "237": 10.195252418518066,
          "238": 6.349861145019531,
          "239": 72.50437927246094,
          "240": -5.404903888702393,
          "241": -1.064911127090454,
          "242": 3.055600166320801,
          "243": 0.18662510812282562,
          "244": 0.40120479464530945,
          "245": -0.2848719358444214,
          "246": -5.452472686767578,
          "247": -5.156575679779053,
          "248": -35.80173873901367,
          "249": 2.264561653137207,
          "250": -4.641987323760986,
          "251": 0.809850811958313,
          "252": -1.0723164081573486,
          "253": -10.128847122192383,
          "254": -9.299506187438965,
          "255": 0.176591157913208,
          "256": 3.280533790588379,
          "257": 0.3915289044380188,
          "258": -2.5747601985931396,
          "259": -43.63035583496094,
          "260": 4.4375691413879395,
          "261": 18.970550537109375,
          "262": -13.277301788330078,
          "263": 1.4408067464828491,
          "264": 0.7063738107681274,
          "265": 0.7513538599014282,
          "266": -8.458547592163086,
          "267": -0.4394344389438629,
          "268": -6.266094207763672,
          "269": -2.8961873054504395,
          "270": 3.083089590072632,
          "271": -4.649075031280518,
          "272": 2.935727119445801,
          "273": -10.81486988067627,
          "274": 13.919386863708496,
          "275": -0.462760865688324,
          "276": 21.760255813598633,
          "277": 3.7511544227600098,
          "278": -1.6005501747131348,
          "279": 0.16162323951721191,
          "280": 2.0926496982574463,
          "281": -57.59538650512695,
          "282": -4.696588516235352,
          "283": -0.7341392040252686,
          "284": 0.6471969485282898,
          "285": -0.9034421443939209,
          "286": 0.012577217072248459,
          "287": 2.516983985900879,
          "288": 2.8617820739746094,
          "289": -1.8810473680496216,
          "290": -1.5548062324523926,
          "291": -0.006241004914045334,
          "292": 0.041492801159620285,
          "293": -17.124116897583008,
          "294": 4.726792812347412,
          "295": -1.1835241317749023,
          "296": -28.536252975463867,
          "297": 0.15772083401679993,
          "298": 0.8119067549705505,
          "299": 10.564309120178223,
          "300": 0.6439459323883057,
          "301": 59.82722091674805,
          "302": -14.604682922363281,
          "303": 2.662081718444824,
          "304": -0.471520334482193,
          "305": -2.3123393058776855,
          "306": -5.255408763885498,
          "307": -0.2803442180156708,
          "308": 6.94728422164917,
          "309": -2.939943552017212,
          "310": -4.750875473022461,
          "311": -0.12669822573661804,
          "312": 1.1544007062911987,
          "313": -21.893747329711914,
          "314": 5.644765377044678,
          "315": -5.1444926261901855,
          "316": 25.937231063842773,
          "317": -13.318015098571777,
          "318": 2.0338635444641113,
          "319": -33.79554748535156,
          "320": -14.529120445251465,
          "321": -31.747774124145508,
          "322": -45.229549407958984,
          "323": -53.89181900024414,
          "324": 34.96800231933594,
          "325": 1.3258975744247437,
          "326": 1.2129848003387451,
          "327": 1.349503517150879,
          "328": 9.307653427124023,
          "329": -2.6305720806121826,
          "330": -4.222015857696533,
          "331": 46.73789596557617,
          "332": 0.5823283791542053,
          "333": 5.332913875579834,
          "334": 0.9598965644836426,
          "335": 12.58877182006836,
          "336": 6.8229498863220215,
          "337": 5.185325622558594,
          "338": 8.952879905700684,
          "339": 6.395742893218994,
          "340": -1.5686205625534058,
          "341": 25.43051528930664,
          "342": 3.207571029663086,
          "343": -0.8380590081214905,
          "344": -0.6794002652168274,
          "345": -4.004888534545898,
          "346": 1.2547658681869507,
          "347": 2.1501142978668213,
          "348": -2.5587031841278076,
          "349": 20.111738204956055,
          "350": -0.5078972578048706,
          "351": 1.1626068353652954,
          "352": -3.999612331390381,
          "353": -1.7753182649612427,
          "354": -3.6981873512268066,
          "355": -0.21960684657096863,
          "356": -4.2093586921691895,
          "357": 23.50578498840332,
          "358": -0.006715841591358185,
          "359": 2.0047645568847656,
          "360": -1.681702733039856,
          "361": 0.4468236565589905,
          "362": -2.5206427574157715,
          "363": -0.035956498235464096,
          "364": 0.4417419731616974,
          "365": -4.026397705078125,
          "366": -0.1401045024394989,
          "367": -12.124401092529297,
          "368": -66.95252990722656,
          "369": 1.7317426204681396,
          "370": 5.169704437255859,
          "371": 1.5800281763076782,
          "372": -1.5742475986480713,
          "373": 1.9676613807678223,
          "374": -3.2741780281066895,
          "375": 2.2445905208587646,
          "376": 0.3996078372001648,
          "377": -1.0860848426818848,
          "378": -0.14906880259513855,
          "379": -30.64508056640625,
          "380": 5.917712211608887,
          "381": 1.544193148612976,
          "382": -5.241072654724121,
          "383": 4.021040916442871,
          "384": -2.9430487155914307,
          "385": 8.73110580444336,
          "386": 10.397363662719727,
          "387": 4.019958972930908,
          "388": 16.680543899536133,
          "389": -2.231344223022461,
          "390": -5.508380889892578,
          "391": -6.487912654876709,
          "392": 0.5517193078994751,
          "393": -5.7308349609375,
          "394": 7.054624080657959,
          "395": 8.539755821228027,
          "396": 0.09594029188156128,
          "397": -24.188982009887695,
          "398": 14.450873374938965,
          "399": 63.23006057739258
        }
      },
      "cellActivationBias": {
        "rows": 20,
        "columns": 1,
        "weights": {
          "0": 0.5741369724273682,
          "1": 0.9022284150123596,
          "2": -1.2278811931610107,
          "3": -12.783452987670898,
          "4": 4.989338397979736,
          "5": -0.5225623846054077,
          "6": -0.35183531045913696,
          "7": -0.14185172319412231,
          "8": -3.358837604522705,
          "9": -6.333497047424316,
          "10": 1.0163894891738892,
          "11": 1.1671844720840454,
          "12": 0.5237472057342529,
          "13": -0.07354805618524551,
          "14": -1.0165457725524902,
          "15": 3.1488959789276123,
          "16": -0.593536376953125,
          "17": 1.7703920602798462,
          "18": -1.0089783668518066,
          "19": -0.24776847660541534
        }
      }
    }
  ],
  "outputConnector": {
    "rows": 1,
    "columns": 20,
    "weights": {
      "0": -11.582138061523438,
      "1": -18.37188148498535,
      "2": -7.213016510009766,
      "3": -12.540304183959961,
      "4": 14.863760948181152,
      "5": 5.761510372161865,
      "6": -6.778839588165283,
      "7": 7.808561325073242,
      "8": 14.329087257385254,
      "9": -19.352800369262695,
      "10": -11.101357460021973,
      "11": 8.058755874633789,
      "12": -14.954282760620117,
      "13": -6.249160289764404,
      "14": 19.668550491333008,
      "15": -28.346101760864258,
      "16": 16.02370262145996,
      "17": -21.214279174804688,
      "18": -21.591157913208008,
      "19": -27.055601119995117
    }
  },
  "output": {
    "rows": 1,
    "columns": 1,
    "weights": {
      "0": 5.301350116729736
    }
  }
}